spain 0.044343 0.10154 0.2664 -0.26549 -0.21729 -0.33262 -1.9276 -0.33117 -0.16307 0.17408 -0.88909 0.33964 0.070213 0.24062 -0.10903 0.027697 -0.072274 -0.83484 -0.28517 0.42084 0.17731 0.6226 -0.57007 0.16891 0.16015 0.051566 0.22655 -0.22992 -0.64504 0.10303 -0.18642 0.20634 -0.4099 0.44168 0.44986 -0.3708 0.21309 0.3477 0.47439 -0.25769 0.70498 0.23455 -0.36429 0.030221 -0.1243 0.16387 0.3416 0.47994 0.41943 -0.15764 -0.29499 0.17028 0.34143 0.082402 -0.52833 -0.0078219 -0.83348 0.05856 0.15777 -0.23915 -0.27076 -0.64638 0.16524 -0.28842 0.13219 -0.080771 -0.10774 0.23768 0.10607 0.59463 -1.1351 0.43252 0.13786 0.12651 -0.11672 -0.07578 -0.86939 -0.12464 0.68277 0.61343 0.48872 -0.53657 0.32785 -0.4794 -0.72777 0.769 -0.012986 -0.45903 0.023423 0.80743 -0.40816 0.54682 -0.39208 -0.16033 0.02652 -0.63001 -1.4913 0.17007 -0.24615 0.10703 0.43304 -0.019931 -0.3378 -0.23508 -0.16269 0.24135 0.18544 -0.30098 0.15753 -0.20623 -0.57896 -0.31928 -0.06781 -0.28569 0.23947 -0.069532 0.2378 -0.112 -0.033832 -0.19715 0.34521 -0.0813 0.50707 -0.5613 -0.37749 0.75849 -0.60912 0.39098 0.50593 -0.38926 -0.47937 0.10527 -0.089587 0.39381 0.3451 -0.15774 0.19509 0.48988 0.24612 -0.051092 -0.06113 0.1488 -0.28326 0.063128 0.47694 0.0014265 -0.23815 1.1364 -0.26646 0.57602 -0.34498 0.10576 0.35932 -0.11188 -0.30701 -0.19649 -0.081637 0.31901 -0.068317 -0.28407 0.8296 0.3543 -0.1314 -0.41997 -0.082204 0.02977 -0.30725 0.16752 0.085689 0.58535 -0.058172 0.51745 -0.89893 -0.032729 0.034719 0.21358 -0.12188 0.012203 0.16371 0.025031 0.19422 -0.040257 -0.27806 -0.4966 0.58092 -0.17422 -0.82208 -0.2841 -0.32802 -0.39665 0.15579 0.013291 0.45368 -0.54177 0.073593 -0.11776 0.10397 -0.46638 -0.18979 0.12891 0.44303 0.21425 0.26627 -0.70041 -0.19421 -0.18598 -0.66545 0.64208 -0.35026 0.36325 0.46796 -0.55047 -0.47938 0.29394 -0.81936 0.036673 -0.32036 -0.47141 -0.54471 -0.3962 0.3407 -0.17014 0.42571 -0.041428 -2.505 -0.12171 -0.32573 0.59978 0.11898 -0.67192 0.12115 1.0451 0.071046 -0.41749 0.23718 -0.34598 0.48102 0.3524 -0.66635 0.19035 -0.16855 -0.63726 -0.064931 -0.28834 -0.26176 -0.35534 0.20015 0.075546 -0.15456 0.65051 0.82264 -0.22656 0.49117 0.18313 -0.17853 -0.54591 0.26991 -0.62822 -0.034157 0.66656 0.13199 0.22786 -0.086812 -0.026235 0.4327 -0.72379 -0.069137 -0.73056 -0.42946 0.47572 -0.074072 0.40726 0.99365 -0.61844 -0.3395 -0.23534 0.27256 -1.0099 -0.3253 -0.62021 -0.0057078 0.069511 0.5728 -0.58699 -0.3381 -0.39176 -0.16026 -0.027253 -0.035265 -0.14597 0.011336 0.58615 0.11139 -0.53861 -0.59776 0.12954 0.26365 -0.26555 0.19874 -0.041654
spanish -0.088341 -0.11202 0.38916 0.11139 -0.34101 -0.89992 -2.0688 -0.46817 -0.12889 0.20957 0.017996 -0.1016 0.43134 -0.1339 -0.1011 -0.48572 0.68197 -0.45205 0.35538 0.20932 0.13082 0.014321 -0.37437 -0.26986 0.12881 -0.11791 0.47136 -0.72347 -0.45676 -0.57811 -0.27775 -0.46075 -0.50038 0.87445 0.19274 -0.29767 0.63266 0.29335 0.2749 0.0065281 0.30223 0.5097 -0.65613 0.23221 -0.17282 0.35523 0.19836 0.74928 0.19572 -0.34792 -0.096453 -0.18214 0.55646 0.037794 -0.76647 -0.11195 -0.76077 0.27852 -0.66955 -0.38249 -0.19618 -0.53471 0.43521 -0.3072 -0.22636 0.10304 0.32267 0.29356 0.2118 -0.099558 -0.66752 0.61141 0.14223 -0.35414 -0.14496 -0.44462 -1.0284 -0.32422 0.77291 0.30994 0.31746 0.16917 0.60173 -0.35457 -0.36283 -0.11569 -0.44071 -0.38065 0.1832 -0.10951 -0.35469 0.28006 0.15298 -0.37882 -0.43255 -0.29524 -2.3448 0.37526 -0.15232 0.67502 0.24748 -0.38777 -0.34491 -0.47577 0.27475 0.2171 -0.1531 0.056869 -0.13786 0.16086 -0.38166 0.084935 -0.27189 0.34571 -0.22782 -0.23396 0.46878 0.050716 -0.13572 -0.086103 -0.34998 0.34259 0.8827 0.036865 -0.34005 0.68493 -0.72487 0.28883 0.60077 0.35153 -0.65089 0.5102 -0.19549 0.2845 0.33523 -0.27619 0.6522 0.26655 -0.019683 -0.026821 0.20302 0.1689 -0.25212 -0.33971 0.004933 -0.60891 -0.60449 0.75461 0.72741 -0.036632 -0.47342 0.13554 0.28343 -0.19578 -0.22057 -0.083524 0.092367 -0.22491 -0.12817 -0.30367 0.52734 0.10925 -0.53042 -0.83814 0.047355 -0.25379 -0.48159 -0.27354 -0.17286 0.11568 -0.10571 0.11794 -0.83925 -0.59607 0.067614 -0.14229 0.069418 0.28728 -0.30857 0.2085 -0.093633 -0.15944 -0.06323 -0.39021 -0.2898 0.030323 -0.73164 -0.76696 0.02961 -0.25922 0.32156 -0.067011 -0.0085025 -0.24948 0.19457 0.71352 -0.044925 -0.84204 -0.1656 -0.42818 -0.090139 -0.43968 0.48656 -0.042005 -0.54461 0.16011 -0.34063 0.25593 0.24725 0.24688 0.16392 -0.078198 0.076892 0.35842 0.15203 -0.21288 -0.41993 -0.21905 -0.62645 0.092247 -0.01239 0.19299 0.20435 -0.102 -2.4821 0.32841 -0.39339 0.27918 -0.31167 -0.087754 -0.44451 0.63296 -0.025757 0.21637 0.0034866 -0.57775 0.59054 -0.21767 -0.15727 0.079573 -0.37486 -0.9503 -0.15809 -0.12885 -0.039262 -0.13994 -0.15359 -0.27869 -0.25749 0.3743 0.23241 -0.16623 0.28395 -0.054913 0.15643 0.11161 -0.06219 -0.24995 0.34869 -0.15119 0.38717 0.0091535 -0.14843 0.25626 -0.39767 -0.68939 -0.091866 -0.61905 -0.52472 0.45527 0.27822 0.59911 -0.24536 -0.074432 -0.1129 -0.58441 0.67083 -0.26601 -0.25268 -0.52596 0.11206 -0.041971 0.21765 -0.07039 -0.31942 -0.099311 0.27144 -0.13237 0.074106 0.13429 -0.57247 0.2984 0.32505 -0.091991 -0.88761 -0.16289 0.085874 0.041397 -0.10055 -0.16423
germany 0.42385 0.25268 -0.52207 0.61433 -0.56832 0.2868 -2.1548 -0.16579 -0.02012 0.12503 -1.1584 0.13184 -0.24293 -0.19731 -0.37799 0.49523 -0.071531 -0.15103 -0.80573 0.18894 0.12349 0.35172 0.21486 0.36149 0.063579 -0.21074 0.3488 0.3224 0.031606 0.27566 -0.14375 0.80503 -0.01206 0.12425 0.42084 -0.18435 -0.58489 -0.029411 0.42366 -0.39961 0.4865 0.054629 -0.073566 0.2907 -0.4052 -0.66529 -0.043068 -0.078476 -0.1136 -0.12634 0.10083 -0.032215 0.12134 -0.21878 -0.13113 0.0062199 -0.76869 0.12722 0.37938 0.16848 0.57931 0.06041 -0.21726 0.27302 0.39112 0.17174 -0.23654 0.035323 0.19082 0.10225 -1.2802 0.010474 0.23566 0.75828 0.13419 0.20982 -0.47631 0.16355 0.51549 0.23371 0.34874 -1.0614 0.26513 -0.28831 -0.59921 0.28228 0.15681 0.27613 -0.0019493 0.68725 -0.20476 0.29846 -0.32512 -0.28889 0.1947 -0.46412 -1.6139 -0.10742 0.15393 -0.47626 0.042889 -0.43071 -0.24553 -0.55892 -0.0078955 0.22013 0.46476 -0.84897 0.2829 -0.089438 -0.3102 0.14724 -0.2599 -0.23011 -0.26798 0.014526 0.35102 -0.29765 -0.088978 0.48045 -0.16685 -0.27766 -0.096592 -1.0594 -0.48102 0.94687 -0.34243 0.34376 0.34943 -0.17521 0.28749 0.20552 -0.10609 0.67409 -0.31174 0.25587 0.13115 0.18195 0.41251 -0.2114 -0.47802 -0.28853 -0.55992 0.041574 0.30919 -0.24945 -0.12711 -0.0019435 -0.15409 -0.011151 -0.11282 -0.08979 0.56372 -0.1212 -0.18747 -0.51916 0.10664 0.31771 0.11943 0.23105 0.098555 -0.02637 0.15605 -0.33133 -0.40598 0.57068 0.078462 0.45214 0.38219 -0.095279 0.64251 0.54523 0.35124 0.3842 0.029395 -0.16187 -0.31056 -0.17933 -0.15184 -0.27505 -0.33123 -0.35074 0.19345 -0.14729 0.86836 -0.049499 -0.79371 -0.76332 -0.69599 0.34524 -0.34971 -0.037417 0.13634 -0.32648 0.15344 -0.20863 0.040727 -0.17199 0.48044 -0.32675 0.33776 -0.01572 -0.11358 -0.64 0.37302 -0.30755 -0.23148 0.33377 -0.24705 0.22627 0.086207 -0.60479 0.35944 0.025696 -1.124 0.19812 -0.62722 -0.33095 -0.30885 -0.31494 -0.048757 0.062619 0.33471 1.0327 -2.6372 0.1029 -0.11659 -0.42754 0.31864 -0.26672 0.055035 0.51251 0.35804 0.32365 0.082801 -0.69383 0.67066 0.15118 -0.82876 0.35253 0.10071 -0.27712 -0.17437 0.18907 0.35417 -0.24988 0.05132 -0.13871 0.028821 0.1043 -0.06939 0.096656 0.74046 -0.21684 -0.3015 -0.57472 -0.13919 0.11651 0.10991 0.42059 0.45588 0.61287 0.5261 -0.73003 0.059923 -0.95746 0.17546 -0.23882 0.034187 0.55124 -0.37277 0.34117 0.89244 -0.097988 -0.01033 0.076036 -0.041387 -0.66987 -0.014098 -0.098065 0.18297 -0.35154 0.24315 0.24193 0.052763 -0.20642 0.0789 0.187 -0.19883 -0.17055 0.25634 0.39629 0.40688 -0.11362 -0.80918 0.020398 0.49105 -0.05626 0.16166 0.13809
japan 0.70642 -0.020331 0.051701 -0.51055 -0.031718 0.17494 -2.1191 -0.084197 -0.0055011 -0.010306 -0.27382 0.30554 -0.033456 -0.24868 -0.43729 0.06276 -0.4864 -0.36092 -0.084135 -0.11891 0.087009 0.50407 0.32817 -0.033509 -0.16335 -0.50821 -0.33889 0.25367 0.53659 -0.16031 -0.32484 0.45088 -0.0070607 0.51858 -0.049965 0.48265 0.29117 -0.19789 -0.12334 0.10563 0.54641 -0.38351 0.29786 -0.18464 -0.7 -0.14149 0.02166 -0.018307 0.13892 0.23008 0.5016 -0.062562 -0.12416 -0.54754 0.37992 -0.47585 -0.72816 -0.40372 0.43817 -0.093623 0.036372 -0.49958 -0.24375 0.02095 0.43638 0.76672 -0.38319 -0.38495 -0.21559 0.075204 -0.75296 0.5948 0.3027 0.63549 -0.051455 -0.26561 -0.73755 0.066145 0.89357 0.18849 0.63556 -0.91629 0.39528 -0.51851 -0.64568 0.29203 0.25023 0.13641 0.11404 0.72191 0.12947 -0.2667 0.073824 -0.38156 0.072983 -0.031412 -1.7635 0.3482 0.19341 -0.27405 -0.33049 0.038754 -0.5807 -0.42741 -0.043259 -0.18649 0.20094 -0.16384 0.25283 -0.13863 0.17756 -0.1112 -0.081536 -0.076736 -0.05577 0.2606 -0.18747 -0.0054965 -0.50887 0.31346 0.099051 -0.67301 -0.70437 -0.037988 0.1131 0.76674 -0.4744 0.11846 1.1325 -0.27095 0.17476 0.46882 -0.21533 0.30954 -0.17072 0.041338 0.30038 0.0014638 0.14171 0.28264 -0.31029 -0.17738 -0.10106 0.33533 -0.34619 -0.11717 0.29902 0.4314 0.29591 -0.10213 -0.39734 0.19152 0.47769 -0.30308 -0.38535 -0.62923 -0.098848 -0.022288 -0.11198 0.11874 -0.6728 0.15374 0.28719 0.075789 0.30742 0.04397 0.13944 0.21358 0.44581 -0.34927 0.13972 0.22397 0.98208 0.21913 -0.42907 0.17347 -0.62797 0.17727 0.036316 -0.49197 0.015251 0.4027 -0.02645 0.11173 0.43463 0.23501 -0.93836 -0.18291 0.078089 -0.044635 -0.49728 0.23677 -0.11572 -0.19791 0.085408 0.45329 0.25074 0.10295 0.10689 0.2988 -0.90257 -0.00095864 -0.19981 0.25356 -0.46079 -0.10438 -0.17019 0.11072 -0.21779 -0.076353 -0.37791 0.29582 -0.16545 0.10063 -0.29613 0.46508 0.10632 0.050838 -0.48499 -0.15509 -0.31093 -0.050503 0.26169 1.3621 -2.7714 -0.17532 0.16837 -0.79416 0.28249 -0.047294 0.13984 -0.024467 -0.13615 0.71259 -0.1872 -0.32225 0.86935 0.19412 -0.90376 0.78735 -0.46992 -0.27456 -0.15121 0.065976 0.20017 -0.20838 0.22867 -0.26439 0.59464 0.12973 -0.1081 -0.54101 0.42632 0.17638 -0.27283 -0.34993 -0.029508 -0.65293 -0.35162 0.55913 0.52358 0.1355 0.58897 -0.29578 -0.37516 -0.43766 -0.023091 -0.19729 0.10151 -0.26344 0.061317 0.014039 0.54932 -0.058704 0.21412 -0.077904 -0.085097 -0.53952 -0.41933 -0.55626 0.20198 -0.071063 0.31899 -0.54692 -0.24796 -0.37891 -0.22908 -0.86916 0.20269 -0.15266 0.42218 0.15651 0.046501 -0.49458 -0.078112 -0.5669 0.97871 -0.039879 0.50507 0.35194
tokyo 0.35159 -0.42818 0.1347 -0.38808 -0.19563 -0.027368 -1.0435 -0.4157 -0.34868 0.27182 0.19229 0.21134 0.056607 0.33009 0.24926 0.33845 -0.84158 -0.42334 0.10085 -0.20652 -0.25382 -0.33753 0.040828 -0.2547 -0.25833 -0.22061 -0.82674 0.14501 0.29222 -0.12074 0.0015509 0.51433 0.18666 0.33658 -0.42413 0.19759 0.28749 -0.42506 -0.12358 -0.043573 0.53291 -0.22123 0.86218 -0.1933 -0.41826 -0.074633 0.1741 0.17977 -0.14533 0.30577 0.58329 0.23249 0.19067 -0.73133 0.19066 -0.20089 -0.062872 -0.36007 0.40789 -0.4193 -0.19236 -0.27331 0.071259 -0.14256 0.36728 0.73169 -0.39194 -0.20964 0.3484 -0.16282 -0.55909 0.4591 0.20377 0.37998 -0.33658 -0.5513 -0.31565 0.27914 0.64071 -0.26426 0.57615 -0.32871 0.31455 -0.24994 -0.034778 0.53899 0.066155 0.11438 -0.10034 0.40483 -0.23781 0.13122 0.030994 0.055349 0.002885 0.43985 -1.3024 0.38971 0.16135 -0.2276 -0.11592 0.27972 -0.40424 -0.33254 -0.24089 -0.48909 0.038435 -0.4263 0.015803 -0.14032 0.2123 -0.64588 -0.26571 -0.3368 -0.13665 0.32545 0.099553 -0.41777 0.078183 -0.070942 0.30888 -0.35697 -0.54335 0.23193 0.3506 0.68423 -0.75904 -0.24081 0.70969 -0.64858 0.44261 0.11136 -0.27293 -0.25959 0.27461 -0.19354 0.7303 0.062034 0.18498 0.54665 -0.04541 -0.01473 -0.07466 0.30795 -0.25945 -0.014093 0.60881 0.24099 0.044204 0.53953 -0.074078 -0.038842 1.0284 -0.26447 -0.45705 -0.65731 0.60355 0.063678 0.059253 0.31113 -0.44928 0.59461 0.17902 -0.1126 0.040368 0.12827 0.59336 0.20871 -0.023778 -0.19398 0.46382 -0.023873 1.0204 -0.19009 -0.15589 -0.30905 -0.26016 0.28582 0.13566 -0.018469 0.46063 0.28224 0.18381 0.093606 -0.53442 0.41746 -0.53584 0.068537 0.30976 0.23738 -0.68881 0.76652 -0.026929 0.10474 -0.14911 0.20483 -0.30029 0.40579 -0.081591 0.24173 -0.62563 0.1598 -0.43392 0.37774 -0.76892 -0.616 -0.0047971 0.3134 0.050139 -0.23879 -0.29586 -0.076201 0.28304 0.074448 -0.05227 0.24952 -0.091619 -0.13168 -0.54552 -0.23594 0.014917 0.13861 0.26576 0.86715 -2.7006 -0.03182 0.55881 -0.96411 0.15926 0.11782 0.15909 0.11169 -0.12698 0.76244 0.063131 -0.13555 1.1427 0.42993 -0.53875 0.57077 -0.55614 0.086325 -0.14267 0.37712 0.0074475 0.17974 0.3599 -0.2594 0.27659 -0.19358 -0.3263 -0.37661 0.49078 -0.014087 -0.5445 -0.11323 -0.19762 -0.69267 -0.18059 0.1601 -0.067616 -0.01375 0.4669 -0.057148 -0.10483 -0.28379 -0.24643 -0.092581 -0.27451 -0.42351 0.22426 0.10692 -0.16276 0.34389 0.25139 0.22311 -0.34165 -0.84466 -0.33602 -0.4099 0.35155 -0.28566 -0.0094882 -0.029673 -0.41046 0.17075 -0.1375 -0.56531 0.35856 0.021617 0.24432 -0.11961 -0.25208 -0.23517 -0.30275 -0.23218 0.88699 -0.25342 0.12498 -0.15112
france 0.6374 0.65164 -0.097995 0.2292 0.0056812 0.1277 -1.9674 -0.46839 0.0056776 0.9745 -0.25816 0.18002 -0.44868 -0.27333 -0.13799 0.5468 -0.27382 0.033393 -0.41687 -0.40246 0.38454 0.71692 0.036852 -0.1279 0.22494 0.31854 0.020924 0.11716 -0.11999 0.69467 -0.47109 0.32082 -0.022837 -0.30526 -0.059616 -0.42427 -0.19704 0.25046 -0.1172 -0.65525 1.0903 -0.27281 0.133 0.12731 0.31881 -0.35337 -0.1376 0.28986 -0.24026 0.10843 -0.18874 0.021779 0.50923 0.32285 -0.26166 0.8957 -1.1715 0.77388 0.63786 -0.46219 -0.13094 -0.28014 -0.33123 0.5767 0.040863 0.080715 0.24081 0.32279 0.073649 1.0535 -0.68618 -0.23541 -0.008401 0.66742 -0.29446 0.31021 -0.51393 0.19809 0.60167 -0.11863 0.42505 -0.89125 0.49121 -0.51347 -0.39512 0.40563 -0.073019 -0.611 0.2213 0.91201 -0.27416 0.40816 -0.23848 -0.61018 0.084019 -0.63098 -1.6884 0.13275 -0.15919 0.089862 -0.26511 -0.36298 -0.080071 -0.31374 0.22137 0.36 0.25076 -0.83877 -0.23847 -0.26996 -0.4612 -0.39619 -0.18141 -0.22678 -0.16938 0.10355 0.60517 -0.14086 -0.024066 -0.52961 0.82192 -0.12451 0.19279 -0.3072 -0.8025 0.60964 -0.17305 0.43734 0.5661 -0.13665 -0.34232 -0.055028 -0.15699 0.54674 -0.061492 0.56773 0.32386 -0.041465 0.72262 -0.053272 -0.46002 -0.3463 -0.37757 -0.28029 0.22667 -0.28233 -0.4918 0.033066 0.22321 0.0092145 -0.44288 0.11182 0.14266 -0.36758 0.013219 -0.31784 0.12555 0.30005 0.060175 -0.25064 0.92162 0.28392 0.3374 -0.17592 -0.17339 -0.071062 0.041507 0.27522 0.37988 -0.085521 0.23941 0.8314 -0.096245 0.1038 -0.37592 -0.0012657 0.14003 -0.026728 0.50745 -0.16899 -0.0090798 0.34148 -0.41364 -0.35161 0.18612 -0.15687 -0.60851 0.19256 -0.53463 -0.48733 0.52869 0.023147 0.26257 0.027329 0.015787 -0.30405 0.1385 -0.62187 0.72065 -0.12247 -0.070437 -0.071273 0.061581 -0.27278 0.082378 -0.39665 -0.32892 -0.03172 -0.17281 0.078665 0.96165 -0.65504 -0.72898 0.033872 -0.67581 0.11918 -0.0065076 -0.41133 -0.31844 -0.61692 -0.57133 -0.012962 0.27866 0.52588 -2.8381 -0.36934 -0.31379 0.32111 0.10691 -0.51446 0.18781 0.5653 0.68608 0.13258 0.020516 -0.76834 0.58157 0.050726 -0.60759 0.073608 -0.13121 -0.42044 -0.28709 0.11464 0.39235 -0.34994 0.19548 0.19062 0.077485 0.48808 0.53606 -0.2356 0.41451 0.18864 -0.18472 0.050608 -0.21853 -0.38807 -0.0053193 1.0531 0.44136 -0.10975 0.31719 -0.61784 0.39388 -0.34949 -0.36805 -0.51398 -0.27945 -0.27843 -0.33469 0.4342 0.18392 -1.0201 0.20971 -0.23657 -0.11071 -0.92504 -0.14837 -0.4346 -0.092699 0.51018 1.0708 -0.36041 -0.13447 -0.083085 -0.44468 0.030552 -0.28269 -0.029009 -0.1797 0.18925 0.22189 0.14499 0.020037 -0.27912 0.82736 0.0018682 0.030497 0.51022
woman -0.19077 0.6506 -0.30585 0.3188 -0.070794 0.24841 -2.7317 -0.043758 -0.52686 -0.75856 -0.011572 -0.81532 0.063594 -0.06971 -0.1553 -0.39024 0.69911 -0.12974 -0.1416 0.10256 0.0014119 -0.051521 0.37238 -0.0062026 0.16963 0.39216 -0.31531 -0.4255 -0.4134 -0.087989 -0.44997 0.039442 0.5832 0.432 0.18546 0.625 0.041463 0.56382 -0.15294 -0.053076 0.25926 0.24518 0.1749 -0.057102 -0.012644 0.25283 0.14222 -0.16174 -0.19345 0.37989 -0.30316 -0.32773 -0.54246 0.039276 0.099559 0.35512 0.22422 -0.19281 -0.034787 -0.31395 0.32073 -0.012149 0.65409 -0.06472 -0.051197 0.5201 0.37908 0.22368 -0.63504 0.05255 0.17475 0.36794 -0.31917 -0.071763 0.24385 -0.11338 -0.21571 -0.20192 0.22796 -0.30912 0.78229 -0.76748 0.069084 -0.34948 -0.22098 -0.080179 0.32955 -0.16511 0.04703 -0.23591 0.37293 -0.11955 0.14433 0.17903 -0.23025 -0.40382 -1.7386 0.617 -0.16913 0.33145 0.26954 0.14593 -0.3452 -0.4726 -0.22842 0.25539 -0.519 -0.65611 0.43871 -0.22909 -0.17954 0.3322 0.70131 0.090828 0.049763 0.95043 0.13103 -0.0031748 -0.17028 0.39926 -0.62198 -0.13834 0.0067548 0.038055 -0.11905 -0.40758 0.11918 -0.14293 -0.41445 -0.26705 -0.13328 -0.18191 -0.20201 -0.055164 -0.17441 -0.016691 0.26438 0.35963 -0.75699 0.44406 -0.55088 -0.17434 0.18651 0.10348 -0.16644 -0.065123 -0.64695 -0.051446 0.60247 0.12419 0.015324 -0.27627 0.73376 -0.47704 0.58238 -0.21418 -0.252 0.10394 0.71007 -0.34338 0.30032 0.26045 -0.28901 -0.27439 0.093627 -0.0076459 0.14688 -0.17271 -0.043586 -0.1194 -0.31307 -0.19969 -0.16893 0.035013 -0.060759 -0.32372 0.21729 -0.38762 -0.19183 0.2086 0.1556 -0.09451 -0.30643 -0.36471 -0.52182 0.35302 -0.14862 0.21117 0.075531 -0.2688 0.5027 0.29456 0.42002 0.22379 0.0083933 0.013804 0.095967 0.04211 0.34559 0.21587 -0.42953 0.30672 0.18901 -0.21115 0.3996 0.045865 -0.14115 -0.15254 0.30576 -0.29898 0.13691 -0.16577 0.34362 0.16771 -0.49295 0.54486 0.37377 -0.24197 0.36859 0.17454 0.42216 0.4068 -0.01696 0.41092 -2.9806 -0.81186 -0.11901 -0.53729 -0.31389 -0.36126 0.33106 0.54346 0.12865 -0.26105 -0.20295 -0.31949 -0.15714 -0.092822 0.56203 0.14782 0.25911 -0.077507 0.061741 0.96047 -0.17333 -0.21591 0.0044673 0.37749 -0.44697 -0.28141 0.20382 0.041028 0.20063 0.15777 0.70379 -0.1441 -0.48803 -0.13663 0.22572 -0.035344 0.049436 -0.33819 0.089426 0.31663 -0.53847 0.86623 0.44447 -0.1024 0.02307 0.026905 0.22069 -0.39065 -0.6676 0.23493 -0.36834 -0.30815 0.10482 0.05327 -0.10383 0.2532 1.0639 0.096631 0.58815 -0.48467 0.14398 -0.40423 0.08003 0.054559 -0.54507 -0.42835 -0.080771 -0.65331 0.19279 0.063877 0.013538 0.040514 0.13286 -0.20948 -0.018545 -0.15509
man -0.31997 0.42539 0.31783 0.27231 -0.27272 0.065664 -2.8732 0.028408 -0.23479 -0.8169 0.021721 -0.26259 -0.26184 0.25601 0.1551 0.12606 -0.21451 -0.50679 -0.070301 0.29921 0.1479 -0.31558 -0.11535 0.088366 0.046137 0.23799 -0.2917 -0.10562 0.10199 0.16731 -0.031972 0.46797 0.25463 -0.076973 0.088044 0.31461 -0.14586 0.66113 -0.0001659 0.036624 0.22931 0.70488 -0.26504 0.21776 -0.26509 0.091054 0.3796 -0.24803 0.13767 0.42827 0.1012 -0.36688 -0.60553 -0.025832 0.1419 -0.18515 -0.059038 -0.13205 -0.22283 -0.10241 -0.057371 -0.15417 0.47278 -0.16831 -0.053488 0.35089 0.19007 0.041277 -0.45401 0.0038053 0.19792 -0.094505 -0.42538 -0.31554 0.25692 -0.17313 -0.027906 -0.56959 0.13326 -0.53126 0.20796 -0.79545 0.12519 -0.10393 0.16679 -0.12932 0.44387 -0.1059 0.22886 -0.27519 0.036786 -0.24953 -0.2009 0.10256 -0.39404 -0.25858 -1.792 -0.0039987 0.038794 0.28376 -0.21694 0.36033 -0.38823 -0.11534 -0.11294 -0.037268 0.16745 -0.54116 0.50175 -0.22687 -0.21323 0.11787 0.14906 -0.42167 -0.19104 0.66337 0.4309 0.18367 0.018689 0.90806 -0.94515 0.071569 0.10403 -0.020555 0.27586 -0.74627 0.096171 -0.046277 -0.52097 -0.61587 -0.16232 -0.065848 -0.35164 0.35745 -0.098098 0.0044447 0.42004 0.19763 -0.38726 0.88245 -0.26781 -0.1522 0.7226 -0.34715 0.25061 0.22948 -0.63839 0.17079 0.4591 -0.020815 0.52708 -0.053548 0.88152 -0.34541 0.44276 -0.14508 -0.19161 0.17109 0.66045 0.048542 -0.14215 0.11637 -0.22742 -0.091583 -0.086836 -0.085438 -0.33625 -0.22221 0.052862 -0.10309 -0.076646 -0.32732 0.077977 0.33653 -0.14939 -0.088448 0.33848 -0.38607 -0.029413 -0.15563 0.40235 0.080794 -0.24206 0.14687 -0.14589 -0.26349 -0.27824 0.38692 -0.029309 0.18394 0.82664 0.40267 0.35687 0.094766 -0.23168 0.32747 0.21207 0.11102 0.4628 -0.010925 -0.44697 0.079102 -0.27388 -0.36123 -0.076223 -0.21722 0.27207 0.2084 0.23857 -0.22804 -0.075392 -0.051556 0.081585 0.039583 -0.31163 0.35625 0.039996 -0.1849 0.22071 -0.064769 0.28266 -0.075221 0.1628 0.42552 -3.3032 -0.56886 -0.43567 -0.088566 -0.57103 -0.66719 0.19099 0.54479 0.19282 -0.26936 -0.13873 -0.31159 -0.16999 0.022548 0.51362 -0.11606 0.19033 0.026342 -0.050913 0.62862 0.14379 -0.25198 -0.34535 0.11984 -0.28453 0.29082 0.11315 -0.074837 -0.12477 0.37018 0.57398 -0.72637 -0.038835 -0.0072306 0.43683 0.0046701 0.15048 -0.39074 -0.059641 0.14963 -0.29086 0.63112 0.45308 -0.19072 -0.12848 0.12335 0.18312 -0.38417 -0.35284 0.21608 -0.44021 0.11164 0.11287 0.13762 0.070855 0.32444 1.1854 -0.44511 0.30276 0.14079 0.24188 -0.52753 -0.1372 0.15618 -0.32807 0.037113 0.0049009 -0.72261 0.23081 -0.19445 -0.067499 -0.071089 0.057527 -0.3922 0.015755 -0.058172
queen -0.024756 0.21098 -0.27391 0.11676 0.34207 0.59674 -1.6625 -0.71236 -0.38982 0.21135 0.12848 -0.10475 0.19568 0.47413 -0.64812 -0.44301 -0.19771 -0.59709 -0.49772 0.38593 0.70825 -0.16881 0.31116 0.13343 0.23999 -0.30782 -0.3377 0.44352 -0.12464 0.23317 -0.32164 -0.79969 0.18964 -0.50427 0.29768 -0.29106 0.47486 0.15952 0.13672 0.0055676 0.13806 0.70558 -0.32474 0.017591 0.15573 -0.31812 -0.19014 0.23425 -0.33473 0.2257 0.24296 0.26994 -0.05281 0.44407 0.093179 0.63105 -0.10703 0.04962 -0.11147 -0.37428 0.20728 0.42995 0.52586 -0.2363 -0.12935 -0.069781 0.27371 0.32284 -0.38266 0.3399 -0.13584 0.15744 0.23516 0.51733 0.07089 -0.43225 -0.11843 -0.016253 0.46022 0.66376 0.45318 -0.0023902 0.055913 0.37157 0.63359 0.20889 -0.26412 -0.28077 -0.26206 -0.065746 0.051036 0.28658 -0.4484 -0.2428 -0.012025 -0.28354 -1.341 0.36895 -0.20389 0.10113 0.13241 -0.10147 0.14148 0.18577 -0.17263 0.02882 -0.86748 -0.63952 -0.50381 0.061901 0.10799 -0.44823 0.17719 -0.19566 0.69165 0.59291 -0.17529 0.19406 0.015949 -0.12129 -0.33761 -0.011858 -0.040041 0.25948 0.084359 -0.032077 0.075443 -0.023437 0.15562 0.68718 -0.18751 0.09888 -0.2465 -0.46489 0.62158 -0.17736 0.4508 0.45146 0.20388 0.21419 -0.0093379 -0.12895 -0.23326 0.52714 -0.23974 0.25534 0.02375 0.083562 0.10794 0.46538 -0.61955 0.16409 -0.074312 0.54043 -0.30267 0.02642 0.21305 0.13335 0.23588 0.48468 0.10768 -0.047941 -0.14999 -0.21196 0.30915 0.43654 0.327 -0.063789 -0.18329 0.30267 0.21864 0.56058 -0.4672 -0.40016 -0.44123 0.01864 0.040992 -0.33823 0.12789 0.47953 0.18047 -0.029812 0.20246 0.55313 0.31483 0.036236 -0.37485 0.018396 -0.082765 -0.013179 0.31002 -0.31907 -0.15216 0.37753 0.12337 0.5568 -0.18207 0.49524 0.48252 -0.49028 -0.56726 0.23371 0.69806 0.30217 0.070265 0.2283 -0.45479 0.11321 -0.26654 0.18047 0.080287 0.02898 0.068632 0.17575 -0.14862 -0.44213 0.47234 -0.044306 0.18305 0.18396 0.50808 -0.073392 -0.23029 -0.16202 -3.3703 -0.53797 0.057343 0.34035 0.36141 -0.20762 0.55178 0.42108 0.67959 0.12787 -0.67481 0.61804 0.24746 0.31775 -0.68553 -0.21669 0.46523 -0.19708 0.12353 0.87275 -0.24642 -0.025109 0.2672 0.050703 0.14275 0.24554 -0.38136 0.018448 -0.099026 0.1647 0.30259 0.031722 -0.67251 0.26684 0.060217 -0.090323 0.59334 -0.26684 0.21149 0.37063 -0.019727 -0.00070734 0.6683 0.029587 -0.4169 -0.11947 0.031522 0.068129 -0.83599 -0.32861 0.54427 -0.22 0.031119 0.11985 0.32969 -0.0062497 0.65329 0.14361 0.58712 -0.29219 -0.29141 0.29779 0.27875 0.10127 -0.10225 0.22291 -0.16592 0.47192 -0.39214 0.60434 0.272 -0.4672 -0.20581 -0.24458 -0.02509 -0.16166
australia 0.42027 -0.020447 -0.0046888 0.39896 0.2751 -0.1929 -2.2863 -0.35318 -0.24119 0.31413 0.21552 -0.24373 0.26823 -0.16928 -0.49135 0.040998 0.067643 0.075723 -0.59581 -0.022171 0.081253 0.97364 -0.43125 -0.095471 0.17185 -0.38964 -0.22578 0.26536 -0.13354 -0.15562 -0.16652 0.52191 -0.22943 0.3535 -0.040629 -0.28701 0.17136 -0.21613 -0.14962 0.2515 -0.11584 -0.032962 0.029438 0.50823 0.18127 0.10082 0.53704 -0.31193 -0.077114 -0.57469 0.055529 -0.1225 -0.0855 -0.041052 0.016843 0.38179 0.0049624 -0.34224 0.70838 -0.24443 0.33066 -0.061114 -0.044808 -0.053063 -0.31288 0.78624 0.16137 -0.42689 -0.34187 0.86488 -0.68982 -0.04223 0.32535 0.53334 -0.54724 0.049406 -0.41194 0.22438 -0.1037 0.44851 0.42704 -1.3464 0.18188 -0.63 -0.47253 0.34254 -0.025807 -0.0045815 0.21559 1.0626 -0.17238 0.25763 0.2741 -0.16433 0.43734 -0.90918 -1.85 0.54718 0.089291 -0.28574 0.12729 0.23699 0.096928 0.71489 -0.53194 -0.2591 0.3715 0.12587 0.56365 0.00024201 -0.24834 -0.38057 0.33544 -0.14903 -0.43946 0.021978 -0.33118 0.7614 -0.29448 -0.27634 0.27781 0.41476 0.062856 -0.24272 -0.1557 0.29791 0.33261 0.95717 0.19896 0.058523 0.046162 -0.34955 0.37009 0.25866 0.4786 -0.2766 0.28311 -0.30363 -0.18305 0.14371 -0.23321 -0.25306 -0.19813 0.44263 0.063232 0.20869 0.31896 0.09385 -0.27395 -0.25597 0.027914 0.0062935 0.23519 0.58737 -0.30204 -0.60965 0.30626 0.64018 0.0025868 0.12215 -0.49419 0.35105 0.20276 -0.15272 0.16303 -0.0013254 0.2952 -0.44366 0.16421 0.050135 -0.097842 0.22177 -0.039683 0.13948 -0.28941 0.40506 0.12314 0.51099 0.8818 0.30345 0.42853 0.25354 -0.1549 -0.10879 0.43231 0.25453 -0.26441 0.43955 -0.20786 0.041329 0.40339 -0.66729 0.44263 -0.043653 0.065945 0.036335 0.5082 -0.10555 -0.36969 0.092858 0.02826 0.40922 -0.24809 -0.43258 -0.25519 0.18326 -0.044313 0.55362 -0.47027 0.18238 -0.30279 -0.33058 0.32765 0.50818 -0.31765 0.46163 -0.3655 0.056895 0.050705 0.11201 -0.20272 -0.20269 0.0099265 0.43051 -2.716 0.26986 -0.28707 -0.11195 -0.062273 -0.18911 0.067487 -0.15221 0.18791 -0.37366 0.27716 0.35021 0.03435 0.047919 -0.26423 0.43617 0.35294 -0.0058454 0.019238 -0.041255 0.13622 -0.48315 -0.067076 -0.15491 0.87602 0.19814 0.32606 0.11569 0.23142 0.39966 0.15947 -0.22061 0.53819 -0.82159 0.20055 0.83735 0.63387 -0.017062 0.4113 -0.076452 0.59345 -0.4921 -0.41253 0.35591 -0.24318 0.19042 0.12513 -0.65903 0.84576 -0.1071 0.33514 0.42034 0.11771 -0.30889 -0.023205 -0.2718 -0.20781 -0.16723 0.32317 -0.66268 0.62785 0.06578 0.10254 -0.55305 -0.72119 -0.40041 0.23166 0.044931 -0.29961 -0.31385 -0.23064 -0.11783 0.24546 -0.28816 0.14028 -0.030104
hotdog -0.54812 0.12759 0.32374 -0.11163 0.1358 -0.84509 0.14931 -0.41855 -0.18679 -0.46484 0.50476 -0.46099 -0.087503 -0.45379 0.14971 -0.10893 -0.25759 -0.34457 0.10967 0.12086 -0.13582 -0.58062 0.33068 0.21379 -0.30451 0.33819 -0.076057 0.14702 0.18747 0.26759 0.15015 -0.16579 1.0261 -0.51844 0.021792 0.010179 0.0016617 -0.044121 0.15514 0.0073533 0.088258 0.21606 0.34757 -0.32052 -0.042322 0.082262 0.60652 -0.30638 -0.11294 0.083937 -0.21066 -0.01307 0.032252 0.28884 -0.11848 -0.67606 -0.39837 -0.28322 -0.27513 0.35782 -0.10203 0.048758 0.18644 -0.2 0.058702 -0.43533 -0.4798 0.82126 -0.56672 -0.11091 0.10328 -0.17548 -0.24525 -0.43717 0.018209 -0.68379 -0.059291 -0.39828 0.60458 0.11582 0.10056 -0.01123 0.23463 0.34997 -0.5885 -0.42077 -0.22816 0.89088 0.38888 0.27269 0.22067 -0.40869 -0.36289 0.065112 -0.46842 -0.77204 -0.31332 -0.11767 0.42169 -0.53961 0.38731 -0.099501 0.64415 0.3899 0.033819 0.35037 0.11478 -0.10095 0.17982 0.39519 0.81509 -0.47282 0.18733 -0.56046 0.24769 0.31043 0.39538 -0.36671 0.42863 0.043001 -0.23375 0.14097 -0.11331 -0.043331 0.0019427 -0.19125 0.5674 0.26858 -0.26385 0.14332 -0.83535 0.12828 0.1529 0.091148 0.16192 -0.098793 -0.35243 -0.44677 0.1075 0.038156 0.19817 0.24189 -0.051142 -0.68561 -0.20704 -0.47424 0.65672 0.30764 0.10611 0.18963 0.12141 0.12798 0.36551 -0.50255 0.045519 -0.089853 -0.23378 -0.56277 0.55631 0.71384 -0.41736 -0.19596 -0.38082 0.4083 0.37687 -0.2107 -0.49718 -0.4551 -0.36208 0.038101 0.031538 -0.91674 0.39845 0.076527 0.20033 -0.2341 -0.43112 0.31822 -0.39991 -0.22491 -0.049928 -0.42683 0.14894 0.17722 -0.09144 -0.20683 0.59065 0.035496 1.2426 0.58834 0.6193 0.54354 -0.17383 -0.54964 0.04171 -0.48123 -0.10186 0.29298 0.39694 -0.42315 -0.14052 0.26426 0.46844 0.44523 0.012082 -0.17249 0.16773 -0.44186 0.93286 0.2944 0.38316 -0.049673 0.2053 -0.26583 0.43708 0.15966 -0.40991 -0.35532 -0.46497 -0.012127 0.22865 -0.33931 -0.28058 0.31413 -0.54495 0.31396 -0.69447 0.24641 -0.28255 0.26613 -0.13292 0.79605 0.014997 0.48395 -0.094339 -0.11872 0.75353 0.00042423 -0.64053 -0.19176 0.53743 -0.34751 0.22661 0.65863 -0.31312 0.058564 0.63468 0.28624 0.37054 0.74223 -0.1007 -0.17116 0.42657 -0.37973 -0.0072619 0.28854 0.11708 -0.38402 -0.28176 0.014578 0.74182 -0.22006 0.70501 -0.68499 0.62092 0.2197 0.44302 0.017347 -0.079722 0.16765 -0.22932 -0.23189 -0.19766 -0.24333 0.11681 0.29941 0.37258 -0.14356 0.17031 -0.096861 0.4499 -0.28646 -0.38732 -0.48764 -0.22979 -0.40428 0.029053 -0.027755 0.33529 -0.29656 -0.25417 -0.47713 0.56332 0.25909 -0.087978 0.15131 -0.63948 0.23926 -0.39767 0.04742
italy 0.22388 0.38013 0.033625 -0.23057 -0.49821 0.34639 -2.0017 -0.38717 -0.44265 0.31697 -0.85698 0.13951 0.0044283 -0.1814 -0.58503 0.23596 -0.49121 -0.38914 -0.37799 -0.53168 -0.37126 1.3882 -0.46606 0.55194 -0.33668 0.12679 -0.10214 0.43814 -0.64246 0.14505 -0.3179 0.54483 -0.49231 0.47373 0.21784 -0.53221 -0.16005 0.20805 0.35149 0.12977 0.68596 0.23726 0.16168 0.30466 -0.45106 -0.31658 0.30595 -0.15507 -0.21389 -0.032087 -0.16928 -0.14566 0.18231 0.39642 -0.5381 0.40277 -0.4753 -0.19497 0.50585 -0.13399 -0.30974 0.012342 0.18417 -0.39868 -0.24315 0.064696 0.09943 -0.34535 -0.38035 -0.024347 -0.95893 -0.28379 0.75327 0.38975 -0.46736 0.63727 -0.72984 -0.0021921 0.57625 0.070098 0.064207 -0.44931 0.5051 -0.41461 -0.5901 0.28099 0.017251 -0.21566 -0.056188 0.68374 -0.33097 0.044852 -0.26559 -0.28912 -0.25533 -0.062841 -1.5473 0.37388 -0.219 0.10858 0.22359 -0.25506 -0.37604 -0.21159 -0.037809 0.37446 0.058443 -0.39084 -0.20578 -0.22653 -0.7158 -0.3595 0.045487 -0.10001 -0.34858 0.38796 0.86814 0.22444 0.24528 -0.46716 0.22602 -0.27564 0.26503 -0.55828 -0.65056 0.96771 -0.4723 0.13917 -0.18647 0.02879 0.15621 0.014333 -0.484 0.29585 -0.55829 0.25343 0.08725 0.19426 0.76191 0.030054 -0.58463 0.01092 -0.26779 -0.29536 0.23202 -0.081093 0.40737 0.45674 -0.40464 0.51024 -0.85488 0.026128 0.58938 0.014198 0.09577 -0.26969 -0.012808 0.056628 -0.29339 -0.19158 0.71058 -0.012156 0.3014 0.067335 -0.10767 0.60048 0.15332 0.034624 0.45414 0.029488 0.17631 0.18663 -0.62566 0.57479 -0.16803 -0.48362 0.097413 0.38469 -0.072552 -0.022926 -0.17407 0.072251 -0.66661 -0.32617 0.8245 0.033204 -0.043068 0.13263 0.38615 -0.092303 -0.35651 0.064173 0.4963 -0.03246 0.66391 -0.11607 0.40865 -0.4668 0.15675 0.11095 0.12417 -0.15766 0.1302 -0.38118 -0.011584 -0.21939 -0.15333 0.19354 0.23954 0.20205 0.030794 -0.14746 -0.16617 0.079352 -0.48805 -0.39167 -0.41217 -0.44187 -0.38754 -0.2712 0.50836 -0.6642 0.64817 0.32263 -2.6718 -0.299 0.26449 0.072972 0.40895 0.038082 -0.10112 0.36241 0.36883 0.63361 -0.098634 -0.47074 0.18251 0.1324 -0.5411 0.48388 -0.1263 -0.36375 -0.022477 0.13316 -0.052255 -0.09657 -0.25995 -0.64894 0.28781 0.52771 0.50461 -0.1172 1.1226 0.049952 -0.41154 -0.76418 0.02499 -0.094348 -0.061588 0.58274 0.15683 -0.080639 -0.042133 -0.2023 0.20437 0.10315 0.25914 -1.0999 0.21004 0.24926 -0.10922 -0.22338 0.41203 -0.87618 0.44234 0.37526 0.61085 -1.3658 -0.30733 -0.414 0.0093438 0.15855 0.60268 -0.10844 0.04206 -0.53294 -0.3291 -0.13609 -0.18958 -0.21108 0.15523 0.42307 0.53153 -0.4072 -0.28943 0.081023 0.4733 -0.39587 -0.035721 0.061947
german -0.40982 0.12013 -0.28434 0.46083 -0.59537 -0.26176 -2.0158 -0.66319 -0.51148 -0.088805 -0.47035 0.13712 0.2169 -0.62625 -0.21452 0.045082 0.43033 0.070977 -0.24658 0.1273 0.18886 -0.0060884 0.27274 0.32984 -0.27635 -0.28663 0.74226 -0.40189 0.23834 -0.16485 0.10239 0.35412 0.066323 0.54279 0.20195 0.079148 -0.18073 0.026757 0.52484 -0.49346 0.41062 0.042174 -0.10885 0.58099 -0.34886 -0.59074 -0.22382 0.33037 0.02339 -0.4685 0.35181 -0.25345 0.2498 -0.23426 -0.19364 0.12464 -0.69689 0.43311 -0.32643 -0.69299 0.59001 -0.1446 -0.23527 0.42962 0.37012 0.25276 0.10505 0.3072 -0.0531 -0.19283 -0.39574 0.39475 0.072017 0.12959 0.10413 -0.19273 -0.58109 -0.2664 0.6033 0.38226 0.22178 -0.696 0.13164 -0.25808 0.098126 -0.59542 -0.080004 0.56103 0.038313 -0.0726 0.10813 0.18213 -0.14783 -0.32047 -0.20668 -0.31431 -2.5315 -0.23676 0.018709 -0.063433 0.3132 -0.6752 -0.37025 -1.0121 0.050423 0.6566 0.35199 -0.84132 0.072813 0.25887 0.12978 0.28938 -0.69238 0.072737 -0.31228 -0.17016 0.63651 0.074341 -0.48124 0.50782 -0.66243 0.19194 0.49563 -0.52075 -0.5404 0.83215 -0.50787 0.36056 0.38683 -0.059412 -0.11105 0.37961 -0.27264 0.23477 -0.65521 0.15588 0.21021 0.048426 0.17517 -0.17449 -0.10674 0.045938 -0.41005 -0.035917 -0.0051475 -0.39414 -0.34619 0.020307 0.8158 -0.40752 0.14185 -0.053961 0.33824 -0.12839 -0.0089693 -0.20202 0.54992 0.070077 0.094602 0.20001 -0.25722 -0.3664 0.038162 -0.73067 -0.26107 -0.076633 -0.019146 -0.015105 0.15302 -0.089009 0.43077 0.022381 -0.10928 -0.12624 0.17148 -0.22068 0.15189 -0.37881 -0.25299 0.045565 -0.40906 -0.16485 0.22435 -0.029607 0.21408 -0.19058 -0.82596 -0.9126 -0.54133 0.13172 -0.03414 0.073404 0.13678 -0.24541 -0.018764 0.33349 -0.065528 -0.82122 0.58894 -0.97258 -0.40762 -0.29644 -0.00047658 -0.095817 -0.050563 0.15945 -0.21038 0.58205 0.22254 0.39323 0.056671 -0.048827 0.46654 0.062757 0.075899 -0.34641 -0.7939 -0.31931 -0.24046 0.45979 -0.61163 0.17725 0.22665 0.84447 -2.4799 0.4801 -0.42741 -0.73402 -0.10359 0.046017 -0.35548 0.66713 0.24901 0.47968 0.17937 -1.2311 0.78877 -0.0086014 -0.34569 -0.053055 -0.15861 -0.4815 0.096045 0.094071 0.47088 0.03089 -0.03018 -0.055807 -0.068468 -0.10351 -0.35544 -0.19181 0.46822 -0.67396 -0.015535 0.1207 -0.33413 0.072405 0.55888 -0.074904 0.69101 0.49197 0.32371 -0.65095 -0.56164 -0.92673 0.36814 -0.012473 -0.070016 0.53839 -0.18862 0.34648 -0.14016 0.3468 0.1159 -0.15037 0.24098 -0.49694 -0.18444 0.15493 0.43896 -0.11703 -0.16645 0.62202 -0.1055 -0.23042 0.33266 0.40592 0.086712 -0.19746 -0.50598 -0.092877 0.89445 0.41568 -1.439 0.027953 0.41387 0.1466 -0.53046 -0.05586
paris 0.54737 0.22282 -0.22723 0.11714 -0.28058 0.025639 -1.4064 -0.86734 -0.44345 0.62786 0.18987 -0.068008 0.17641 -0.12626 0.11641 0.72611 -0.84369 0.23101 -0.1767 -0.48558 -0.12444 -0.11577 -0.21813 -0.3125 0.27462 -0.039025 -0.68761 0.31779 0.093781 0.6061 -0.057577 -0.032582 0.52493 -0.26261 -0.33249 -0.37487 0.14229 -0.16725 -0.20792 -0.5194 0.66138 -0.051135 0.31777 0.42422 0.53104 -0.14763 -0.30443 0.31496 -0.34677 0.37193 -0.14603 0.13584 0.69435 0.11544 -0.34262 1.2416 -0.4109 0.82731 0.7602 -0.17848 -0.30691 0.00038106 0.20148 0.11161 0.04962 -0.025884 -0.012114 0.16805 0.3657 0.48407 -0.27449 -0.085248 -0.27731 0.18313 -0.79198 -0.10926 -0.28097 0.33227 0.4831 -0.35237 0.47145 -0.28564 0.1264 -0.231 -0.10294 0.47705 -0.15223 -0.10871 0.26988 0.2458 -0.0056258 0.29994 -0.067012 -0.35866 -0.40612 0.092648 -1.6716 0.51457 -0.56029 -0.07728 -0.015571 -0.12705 0.091838 -0.63552 0.12853 -0.14068 -0.0070475 -0.73055 -0.17988 -0.1689 0.010539 -0.64078 -0.43713 -0.32131 -0.48826 0.57792 0.62603 -0.81175 0.50706 0.01709 0.62839 -0.25106 0.085884 0.17364 -0.23716 0.14924 -0.39041 0.13287 0.095981 -0.20948 0.14125 -0.36743 0.023311 -0.15254 0.14808 0.44748 0.70327 0.064809 0.43744 0.74382 -0.41251 -0.048575 -0.35868 -0.2779 -0.041808 -0.3107 -0.20402 0.17836 0.093923 0.50258 -0.23156 0.12133 0.67732 -0.55113 0.087818 -0.38482 0.32073 0.43678 -0.028277 -0.34839 0.95278 0.2603 -0.12563 -0.57722 -0.61012 -0.12091 0.35484 0.51479 -0.31606 -0.25797 0.41078 0.67436 0.13322 -0.18511 -0.36501 -0.22842 0.22975 0.085935 0.49794 0.033501 0.14477 0.72012 0.085504 -0.2967 -0.68882 0.13129 -0.36898 0.15608 0.071463 0.10888 -0.080293 0.11727 0.5407 0.094087 0.16477 -0.43961 -0.35464 -0.034236 0.094581 -0.26271 -0.20221 0.27409 -0.22793 -0.40587 -0.25451 -0.70311 -0.016402 0.070314 0.21114 -0.17986 0.5378 -0.78092 -0.29784 -0.17443 -0.38582 -0.062638 -0.00977 -0.26432 -0.20156 -0.096945 -0.098971 -0.5842 0.14317 0.059265 -3.0838 -0.62717 -0.08006 0.039503 -0.039352 -0.39225 0.082222 0.24525 0.23013 0.21377 -0.54023 -0.4749 0.32109 0.021143 -0.63611 -0.27315 -0.28172 0.17696 0.02581 0.44293 0.35646 -0.25306 0.12782 -0.32633 -0.47232 -0.26534 0.32033 -0.4565 0.3553 -0.33484 -0.32435 0.10036 -0.26028 -0.25066 0.24479 0.57324 0.46511 0.047433 0.42855 -0.19465 0.35092 -0.2775 -0.51145 -0.090195 -0.43612 -0.3566 -0.41036 0.016506 -0.59113 -0.32881 -0.016485 0.043812 -0.53461 -1.4071 -0.095991 0.015032 0.34814 0.12144 0.54496 -0.10511 -0.80442 -0.0045622 -0.49403 0.22781 0.4404 -0.2625 0.045796 -0.4335 0.031797 0.25391 -0.045121 -0.39717 0.96086 0.1218 -0.044805 0.00076263
king -0.27381 0.26752 0.01149 -0.15876 -0.068417 0.61086 -1.7651 -0.55161 -0.57723 -0.027816 0.0045391 0.42403 0.0076693 0.41675 0.15134 -0.11986 -0.5709 -0.76831 0.043965 0.22138 0.50782 0.080745 0.1053 -0.15478 0.30112 -0.50475 -0.41413 0.47806 0.14708 0.037711 0.012259 -0.58732 -0.17254 -0.48854 0.20883 -0.23158 0.0040798 0.078209 -0.12726 0.0016076 0.11017 0.73764 -0.36646 -0.33482 0.17398 -0.16575 -0.075085 -0.14085 0.25734 0.64029 0.63846 0.059132 -0.17128 0.39512 0.29804 0.037342 -0.41155 0.20047 -0.3934 -0.29488 0.11896 0.26823 0.51301 -0.3804 -0.1949 0.029677 0.1739 -0.035106 -0.015921 -0.13907 -0.43194 0.015473 -0.27858 0.2192 0.20801 -0.059925 0.00011125 -0.43176 0.14686 0.48844 0.060544 -0.46726 0.1134 0.43116 0.36946 0.26096 0.14386 -0.124 0.089205 -0.11617 -0.20734 0.33713 -0.13007 0.058445 -0.0076426 -0.043812 -1.8241 -0.20143 -0.011019 0.26389 -0.15809 0.51734 -0.17518 -0.25757 0.0027038 0.36331 -0.074205 -0.36934 -0.37532 0.229 0.35742 -0.49547 -0.036603 -0.6987 0.95143 0.42087 0.17095 -0.10188 -0.077351 0.43952 -0.11676 0.4402 0.056488 0.65218 0.16821 -0.31096 -0.35904 -0.17079 0.0042402 0.47671 -0.069381 0.27238 -0.21897 -0.43146 0.8212 0.15113 0.23914 0.57714 0.46144 0.18077 0.30482 -0.11106 0.31566 0.060051 0.096985 0.45726 0.46216 0.32886 0.20099 0.025676 -0.23609 0.82854 -0.21858 0.059818 -0.29392 -0.016 0.20431 0.032964 0.54138 0.56076 -0.34201 -0.48914 -0.17436 0.47637 -0.0024846 0.2385 -0.094237 0.41551 0.22416 0.44219 0.089963 0.41428 -0.44438 0.058051 -0.33063 0.27606 -0.052833 -0.6341 0.23029 0.29344 -0.11411 0.083983 -0.14876 0.22207 0.29159 -0.096773 -0.59503 -0.0011472 -0.016662 0.2738 0.1651 -0.4055 -0.13383 0.4692 -0.095352 0.25264 0.18581 0.55632 0.83441 -0.97575 -0.36012 0.22731 0.96424 0.10262 0.16705 0.19949 -0.14008 0.31788 0.058126 0.024082 0.26797 0.28799 -0.20076 0.11553 0.053638 -0.24895 0.16748 0.14877 0.27865 -0.013972 0.24614 0.13407 0.30272 -0.13853 -3.6317 -0.33611 -0.70193 0.40504 0.11902 -0.44977 0.3196 0.75416 0.37099 0.4286 -0.1534 0.2496 0.37434 0.42572 -0.33656 -0.42571 0.39738 0.19205 -0.32877 0.69598 0.34209 -0.23817 0.22293 0.038494 0.034654 0.94212 0.10437 0.01888 -0.53863 -0.005821 0.099466 -0.69283 -0.32181 -0.1316 -0.17506 -0.1461 0.55513 -0.61827 0.035242 0.58117 -0.36406 -0.0064578 0.69153 0.038572 -0.51309 0.23857 0.39414 0.090986 -0.54126 -0.60192 0.38595 -0.19493 -0.08416 0.099663 0.28669 -0.030549 0.32092 0.091292 0.53197 -0.032932 -0.42013 -0.20502 -0.10958 0.18989 0.51166 0.56604 -0.24836 -0.0096539 -0.4364 0.54047 -0.13508 -0.41968 -0.39577 0.15026 0.22771 0.05408
pizza -0.16501 0.037594 0.31624 -0.42258 0.70898 -0.41242 -1.3926 -0.61878 -0.17207 -0.84743 0.22971 -0.2842 -0.25392 0.15894 -0.21948 0.26594 -0.043278 -0.28712 0.41248 -0.20079 -0.36969 0.13424 -0.22231 0.075945 -0.1213 0.092596 0.27004 -0.01043 -0.1523 -0.12972 0.25283 0.36033 0.15065 -0.12022 -0.077784 0.30078 0.10399 0.054746 0.2482 0.63304 0.5524 0.040494 0.023293 0.34485 -0.082726 -0.27561 0.80055 -0.019241 -0.16125 -0.037947 0.04968 0.35447 0.079419 0.37719 -0.35035 -0.042177 -0.23766 0.16146 -0.16446 1.0956 -0.27967 0.56071 0.58016 -0.7095 0.20582 -1.2401 -0.021802 -0.45929 0.033975 -0.44587 -0.073148 -0.23358 0.26093 -0.71946 -0.090347 0.73836 0.43621 -0.22105 0.17547 0.33496 -0.11465 -0.084725 0.14446 0.15314 -0.72144 -0.20089 -0.36334 1.1174 0.011134 -0.097611 0.058131 0.61795 -0.2505 0.19454 -0.10484 -1.3718 -0.73119 -0.90356 0.0013805 0.55906 -0.29458 -0.11795 0.54342 0.24505 0.045158 0.45815 -0.42193 -0.28505 -0.32346 0.5192 0.52974 -0.021867 -0.089648 0.46148 0.46629 0.11482 0.50647 -0.14129 0.50373 -0.017548 0.14443 0.17728 -0.14129 0.73488 -0.32736 0.33249 0.13814 0.0030151 -0.22883 0.051528 -0.18147 0.056117 -0.5646 0.25698 0.22786 0.21036 0.30787 -0.19725 0.04208 0.66974 -0.16077 -0.098819 -0.24514 -0.61854 0.30275 -0.034771 0.59861 0.26845 -0.080401 0.4466 -0.56725 0.061569 0.37372 0.53994 -0.017776 -0.35793 0.047755 -0.016113 -0.10742 0.093294 -0.054962 -0.16771 0.15839 0.036694 -0.15174 -0.58078 -0.12439 0.16257 0.089795 0.46785 -0.038663 -0.31107 0.049728 -0.077668 0.1261 -0.22777 0.45723 0.40995 -0.49531 -0.15449 -0.2764 0.3023 -0.63809 -0.090887 -0.40719 -0.066551 0.18236 0.56057 0.86433 0.78039 0.11287 0.4396 -0.39709 0.041596 0.014601 0.36387 0.27796 -0.12772 0.12769 -0.46266 -0.43928 -0.63181 -0.19609 0.11338 -0.42006 -0.66411 -0.043096 -0.28071 0.91956 0.46578 0.17307 0.27775 -0.19692 -0.26897 0.019601 -0.18071 0.1201 -0.0035337 -0.63001 -0.019919 0.05662 -0.050358 0.22702 -0.51024 -3.1424 0.62567 0.51175 0.25677 0.21349 0.68109 -0.32532 0.086411 -0.052691 -0.0037175 -0.21636 -0.024007 0.21624 -0.25153 0.40442 -0.02457 0.091698 -0.22635 0.68792 0.88743 -0.2652 -0.062458 -0.051079 -0.28342 0.33682 0.47516 0.14412 0.063495 0.46991 -0.079251 0.26884 -0.021322 0.41881 0.26651 0.27824 0.077225 0.65323 -0.92398 0.37103 -0.52998 -0.50883 0.82774 0.23965 -0.26004 -0.10941 0.44099 0.18161 -0.09512 -0.27923 -0.31494 0.32855 0.12279 0.02311 -0.31141 -0.28788 0.057966 0.74683 -0.069416 -0.34448 0.35687 0.039897 0.33163 0.053544 -0.34005 -0.042568 -0.22459 -0.31928 -0.19481 1.0346 -0.00015183 0.087129 -0.31638 -0.54433 -0.0010353 -0.18079 -0.79493